{
  "Layers": [
    {
      "Neurons": [
        {
          "BiasTerm": 0.8634291372839356,
          "ActivationFunction": "relu",
          "Weights": [
            0.8268653487469524,
            -0.6603535253087734,
            -0.3368073930700817,
            0.0935193575622908,
            0.4010580175889291,
            -0.049251201895846974,
            -0.14903909147384853,
            0.13506856715107163,
            0.5250520170973585,
            -0.3575374834677535,
            0.7410568294080697,
            -0.08174862230733004,
            -0.47486574511906887,
            -0.21595790780426471,
            -0.32450549119377703,
            0.2805622869968527,
            0.3202078739678287,
            -0.8166735428000114,
            -0.25861887900026637,
            -0.6449646806361373,
            0.8484264917114233,
            0.24108502844187152,
            0.39673312973433306,
            0.6528671694186301,
            0.9827712986066348,
            0.41058329928074344,
            0.9391083691570543,
            0.7602640062150197,
            0.13583242210950286,
            -0.36292823895228465,
            0.16836038494077865,
            -0.3718247783393164,
            0.2966058300998329,
            0.09507687645205554,
            -0.13625506769923423,
            -0.2056927618699823,
            -0.9488385233363534,
            -0.5884025720749593,
            -0.5627516433126469,
            0.5511794628902609,
            -0.2620388318805832,
            -0.35196049324918965,
            -0.3552816942943382,
            -0.6944433583018728,
            -0.5888690501617175,
            -0.013835758835971657,
            0.232143667634241,
            0.3938104622692846,
            0.0968906169662358,
            -0.5922953724073872,
            0.4970118901739924,
            -0.9921221781265072,
            0.5311698876378617,
            -0.5211223470080726,
            -0.14122637576609576,
            0.0876766626622516,
            -0.5786550674160924,
            0.5314182298494667,
            -0.6963233829461877,
            0.10973727961583313,
            0.8401934266072955,
            -0.3221421684368666,
            0.11010069289513691,
            0.7229598048456691
          ]
        },
        {
          "BiasTerm": -0.11115770404893843,
          "ActivationFunction": "relu",
          "Weights": [
            -0.5686980546985612,
            -0.8188185811503879,
            0.3712305554927178,
            0.29149793755079223,
            -0.22334575841684656,
            0.1604299995696139,
            -0.6166287034942572,
            0.5781234251982643,
            0.5175248120225366,
            -0.060431813676849244,
            -0.6853168632754087,
            -0.9496584557781936,
            -0.5452292408718193,
            0.7934504403887568,
            -0.40362727453830904,
            -0.03207258191639073,
            -0.5374055180159837,
            0.9392383111407978,
            -0.4478592446786137,
            -0.9797678977516396,
            -0.28139312863162924,
            -0.37362743522901865,
            -0.3383764118365361,
            -0.07283511903537532,
            -0.05209895605791359,
            0.74366270843554,
            -0.3128888895964085,
            0.13206598903741318,
            0.4338292749642436,
            0.6804170393334397,
            0.2705897415695053,
            0.9057051798669988,
            -0.6539795402887735,
            0.5947322634632424,
            0.4330663549771565,
            -0.18325994569946735,
            0.03560694373409379,
            -0.7979842646791464,
            0.23463893276866132,
            -0.2547639778280075,
            0.4693094104017226,
            0.044910076964804535,
            0.9104521910237042,
            0.5443337969175779,
            0.3408096377532406,
            0.30115019887553296,
            -0.005797289306734732,
            -0.07272042551819469,
            -0.24758044636675303,
            -0.3028666938460718,
            -0.014822618282110622,
            0.18255957837495274,
            -0.6210437744275432,
            -0.6175179621933207,
            -0.5593230440463295,
            0.6223459848489283,
            0.011846790326428769,
            0.405658382226316,
            0.4984020227439394,
            0.8682189642139562,
            0.5380614436530977,
            -0.831321126582347,
            -0.301725552196883,
            0.49397037276568945
          ]
        },
        {
          "BiasTerm": -0.3967078842918641,
          "ActivationFunction": "relu",
          "Weights": [
            -0.3982982281688011,
            0.44622812010645907,
            0.44513199758997923,
            0.17637779723376035,
            -0.6194193510308289,
            0.018222495017303775,
            0.6755348310483378,
            -0.8079589018920652,
            0.12283838940393443,
            -0.01042759432894258,
            0.497757401815045,
            0.7095287785362514,
            0.9606614664231499,
            -0.07340138382128836,
            0.8628500940911412,
            0.3835155942119457,
            0.45265895969129644,
            0.7366769531984063,
            -0.5754353991442094,
            -0.8438012712159565,
            0.12795095055097416,
            0.547913487788064,
            -0.5395566462560253,
            -0.5140376817161725,
            0.5230629752146323,
            -0.787627769580381,
            -0.96420554196997,
            -0.9713714227583851,
            0.14065842831811137,
            0.24647586178390912,
            0.24885950637759335,
            0.029078107353544214,
            -0.013549779882485846,
            -0.5527655870026094,
            0.8080138864229107,
            0.9262506026133066,
            -0.6686398228288621,
            -0.2464149859708823,
            -0.10454789797691999,
            -0.6990744758022176,
            -0.08327223154780006,
            -0.09886284027535464,
            0.8164795006033969,
            0.4864976377450323,
            -0.5471032718384072,
            0.019645683061369157,
            0.3256885607923323,
            0.48263878839093866,
            0.5157934209100095,
            0.21178838853181436,
            -0.7786787564861081,
            0.9099199204039417,
            -0.9922799828656085,
            0.4404969373649881,
            -0.4369624514239333,
            -0.08999651760318783,
            -0.6006538113007094,
            -0.15793347119723156,
            0.14498292660027268,
            -0.9299869919115149,
            -0.44975497552804133,
            -0.5924471285898537,
            -0.21942364795302816,
            -0.11391325215491976
          ]
        },
        {
          "BiasTerm": -0.6337701024588012,
          "ActivationFunction": "relu",
          "Weights": [
            0.4617595613745271,
            0.5505820764123621,
            -0.16912860580038347,
            0.43461259823049914,
            -0.6803670994511728,
            -0.9572528747537451,
            0.8960354898453122,
            -0.33359860780281136,
            0.2535991809981495,
            -0.11311501867660867,
            -0.03689154469677591,
            0.8368874180478432,
            0.28517267658050827,
            0.8803449742478422,
            -0.3106752573826259,
            0.00392957564809171,
            0.05297303663561248,
            0.7704477235035374,
            -0.9184614129384805,
            0.3717162464571422,
            -0.00815150000249032,
            0.24742187236070579,
            -0.6490626801142396,
            0.59728422657954,
            -0.8155413425036518,
            -0.6480922207491555,
            0.3008631723238391,
            0.2571074217692133,
            -0.22562725526541882,
            -0.997371772559857,
            0.563047695121276,
            0.07827817780203317,
            0.556874846499464,
            0.025258289104497678,
            -0.41703415746033845,
            -0.6977066464126326,
            -0.5508517855990407,
            0.09466521361725966,
            0.29713373554870515,
            -0.7781082078929561,
            0.7204237562866183,
            0.7990257370447906,
            0.8614051161582836,
            0.9046875532388754,
            -0.9036993046232846,
            0.6653548189847409,
            -0.35608916376209065,
            0.037147652911009965,
            0.8092839066272302,
            -0.9488086473326129,
            -0.9292782041503681,
            0.459387004883802,
            0.503673668633627,
            0.8067889749599539,
            0.9479838185076901,
            -0.8597997800966276,
            0.34561874050168884,
            0.6642611793302646,
            -0.5056234105918767,
            -0.7583873195630995,
            -0.7901385139676205,
            -0.38953708224613015,
            -0.2254701517066824,
            0.5894130363766685
          ]
        },
        {
          "BiasTerm": 0.07251216032477514,
          "ActivationFunction": "relu",
          "Weights": [
            -0.4598421739016314,
            0.6981623016460428,
            0.2994032897277643,
            -0.799205301879273,
            0.29511226667042134,
            0.8368929741940505,
            0.09150977728462473,
            -0.6280971456906568,
            0.8830446266273302,
            0.44164042418031557,
            -0.7305543308034216,
            -0.9723957082390772,
            0.36383472882927115,
            -0.7154588911667938,
            -0.21177513229606848,
            0.33727458140130695,
            -0.2538523170624688,
            -0.19346447539516043,
            0.02551523461628724,
            -0.11435396061332315,
            0.34331767215477704,
            0.3878921393393293,
            0.6312741965932753,
            0.4777043799972116,
            -0.47741225900196205,
            -0.48914733440105096,
            -0.6903001923356877,
            0.12307970781286426,
            0.49013338639080906,
            -0.1656145641159591,
            -0.6838389426136702,
            -0.14946988635618497,
            0.8717976141316606,
            -0.7834398538725127,
            -0.09504764329222237,
            0.9398006387586308,
            -0.7469682818631146,
            0.9172414004241685,
            -0.05284789537167123,
            0.9554738403323904,
            -0.4456411537424021,
            0.3391492320543634,
            0.9137773878450235,
            0.3725217913846317,
            0.6423111857322559,
            -0.29374408380324424,
            -0.5326810963460684,
            0.9139973145251119,
            -0.8956335290155576,
            -0.44308289710487514,
            -0.3320584517918176,
            -0.831926602049457,
            0.8870614725247328,
            0.571600406413078,
            -0.93502394069692,
            0.06984024902090313,
            -0.6955397172808323,
            -0.03836645630299895,
            0.9317243306940379,
            -0.6240273049991973,
            -0.594508461829441,
            0.314107055612852,
            0.44375138064307795,
            0.7114714809727591
          ]
        },
        {
          "BiasTerm": 0.4485795461270867,
          "ActivationFunction": "relu",
          "Weights": [
            0.6812190096115489,
            0.34540047468922186,
            0.153029946622804,
            -0.2646954888221207,
            0.6369021107958048,
            -0.7433763926514709,
            -0.8270696674596134,
            -0.5848064394645813,
            0.4596481641795771,
            0.2586161284157502,
            0.13227132894797822,
            -0.6238382259659385,
            -0.43356192994261367,
            -0.6106711959346086,
            0.7544376497942771,
            -0.47541339555941353,
            0.27654032106433935,
            0.624057746603448,
            -0.7646914305494117,
            0.8963300666583498,
            -0.7206729678767523,
            -0.9274718348537668,
            -0.015936322667630676,
            0.8918746240265254,
            0.41536762638595914,
            -0.21048232393800592,
            -0.8976751141333317,
            -0.8843204089064636,
            0.322505959031834,
            0.32701560444610256,
            0.2970643041435368,
            0.7511838604698549,
            0.8775249024436496,
            0.816464074649335,
            0.8827506564559569,
            0.29028140125656066,
            -0.13785934494208352,
            -0.28606784645730343,
            -0.057738432834082754,
            0.5536514856672785,
            -0.3412468159149228,
            -0.8910407683431214,
            -0.7903913513375818,
            0.43385919239372717,
            0.3846435936030994,
            -0.045304542419544624,
            -0.060826425798955475,
            0.6464785281714702,
            -0.9321952322226957,
            0.6376405600496324,
            0.606652644477575,
            -0.8850043272521422,
            -0.5897059449789376,
            0.6862916442958702,
            -0.8427469305446108,
            -0.7974973542257346,
            0.8384416681484117,
            0.605580097295453,
            -0.014625879676945508,
            -0.6837839750748946,
            0.8899719486584141,
            -0.705886351458449,
            -0.5065338871334897,
            0.9449392963537502
          ]
        },
        {
          "BiasTerm": 0.25381668765848286,
          "ActivationFunction": "relu",
          "Weights": [
            -0.931679915083662,
            -0.6155978113856679,
            -0.35413592286264606,
            0.345540545912143,
            -0.6258020648713716,
            -0.9099711110288912,
            0.15726366775828615,
            -0.5664617225336648,
            -0.06356985249566105,
            -0.8484044618442395,
            -0.46795164878004625,
            -0.14157510634797077,
            -0.9015109064813482,
            -0.7245318085635588,
            0.07997273782781567,
            -0.9516482212297535,
            -0.36594888370539025,
            -0.9127750433565147,
            -0.6346914921097768,
            -0.7704976663869944,
            0.3597816703856209,
            0.9512306310896177,
            0.47216108099926624,
            0.8575085352588634,
            -0.15420461345902003,
            0.3302223713271608,
            -0.7530378130670251,
            -0.6591652502250787,
            -0.06429133468999992,
            -0.9672368652346964,
            0.8329921635089512,
            -0.4957852726042624,
            -0.9110631142713203,
            -0.9494287444681475,
            -0.8562401148515373,
            -0.0293531440056628,
            0.7804905193432972,
            0.2754598542954534,
            -0.5748420036053244,
            -0.553880101292325,
            -0.3029734978307479,
            0.3872436891042219,
            0.4959603555706946,
            0.4955763515871563,
            0.1770358521384352,
            0.017574235723420317,
            -0.08042850258185197,
            -0.47210096508413435,
            -0.7181638030946518,
            0.17733484747851636,
            0.31603905275686794,
            0.649905326092667,
            0.7172710940020497,
            -0.8315904471567942,
            0.7775567912985488,
            0.812322147252484,
            -0.40024977245864346,
            0.24060333350713914,
            0.28517640419750245,
            -0.7309125302907229,
            -0.1713659115350652,
            -0.1192496610381153,
            -0.3265348193663047,
            -0.7911387594279529
          ]
        },
        {
          "BiasTerm": -0.48440657782560614,
          "ActivationFunction": "relu",
          "Weights": [
            -0.17306212780364527,
            0.6314775238862902,
            -0.4967704464850129,
            0.22922635661750146,
            0.8373605639887833,
            -0.9876101111459565,
            -0.6293078199874553,
            0.4509459035616177,
            -0.3146262447967515,
            -0.6942431382277265,
            -0.6736514068611864,
            -0.28070277468946825,
            0.14085910446831917,
            0.8945172144278195,
            -0.059482808859513514,
            0.3661053127846219,
            0.039740713444952114,
            -0.43415577178308706,
            -0.4466073455382724,
            -0.7883210814109265,
            -0.716736712525492,
            -0.6779770875712312,
            -0.8466574455938514,
            0.6542971875146006,
            0.8514998917297585,
            0.5782630389796937,
            -0.6721292783184375,
            -0.6318122654662666,
            0.8403382247620497,
            0.7322129899907868,
            0.49713580266728474,
            -0.9707472769436402,
            0.03574744029703569,
            -0.739216792040262,
            0.8978981808797108,
            0.8319758714505441,
            0.4068705354410833,
            -0.7752404464145474,
            -0.0016647310104015434,
            -0.4062244400521968,
            0.9674030060366521,
            -0.9959075844051416,
            0.41792956948071924,
            -0.6686463331054101,
            -0.8624349476741009,
            -0.4855651784730769,
            0.33152151738307367,
            0.29359619110061663,
            -0.7853207127935203,
            -0.7272958166894983,
            0.9886338050111774,
            -0.8523018051478173,
            -0.38309345935257655,
            -0.23521287779898892,
            0.21761892032035912,
            -0.7642673200835213,
            0.9252506481455183,
            -0.09567983284124792,
            -0.26904137065134637,
            -0.5124082238276778,
            -0.7429460811241159,
            -0.7471104326563617,
            -0.043684231696727194,
            -0.4874467589910909
          ]
        },
        {
          "BiasTerm": -0.9764826153541486,
          "ActivationFunction": "relu",
          "Weights": [
            -0.1990314356319639,
            0.12373979659260748,
            -0.9643108030206761,
            -0.10419324102410521,
            -0.9693411474781103,
            0.05280549161205972,
            0.3763898792820519,
            -0.7512676854103767,
            -0.2867507653585484,
            -0.05670645512333172,
            -0.8983740248650087,
            -0.6757075587238099,
            0.4049340702110664,
            -0.11330863311235173,
            -0.819926364689423,
            0.3755951132882387,
            -0.17595948911340475,
            -0.11075774075577804,
            -0.41639346005863564,
            -0.17377801610917487,
            0.7335314386677159,
            -0.5672335267067641,
            0.8551242434763102,
            -0.8988487225344411,
            -0.09561996974907827,
            0.9201583075283926,
            -0.7546409697301547,
            -0.33495683734713355,
            -0.8040231656184775,
            -0.07544202943076705,
            0.9899993794726558,
            0.00124733993424897,
            0.7619647759151451,
            -0.7527646168386225,
            -0.6166091654578234,
            0.3143593050922111,
            -0.5605417658562972,
            -0.29107238498661736,
            0.8906734349582639,
            0.03709044647020199,
            -0.4739621256355814,
            0.560028236747385,
            0.8117418693322205,
            0.35311398275994255,
            0.005721843492832113,
            -0.372869722255296,
            0.63251634346338,
            0.9446013964135194,
            -0.10533215995999556,
            0.9948434983501475,
            -0.4251050471185698,
            0.47831092329891645,
            -0.15313543761425463,
            -0.5232523261384432,
            -0.7929618737782415,
            0.5426027168215792,
            0.18221089056673923,
            0.5714595244555811,
            -0.8039318464752883,
            -0.10468754217459053,
            0.6406276913897695,
            0.45356963253831917,
            -0.8650658621921985,
            0.6922408221861365
          ]
        },
        {
          "BiasTerm": -0.4563724359653083,
          "ActivationFunction": "relu",
          "Weights": [
            -0.7739662138905369,
            -0.8898625974007234,
            0.9102991868629624,
            -0.1382265806638755,
            0.15859946289904947,
            0.5321997507506389,
            -0.3844853366081886,
            -0.7498890024600597,
            -0.20408837498283194,
            -0.021412549267296854,
            -0.4720815199155306,
            -0.7645104198866111,
            0.29420453889169274,
            0.8189070106013863,
            -0.092140681374557,
            -0.9292410386747475,
            0.32284875437538396,
            -0.31699104399606004,
            -0.059074778400676875,
            -0.2299139292794521,
            -0.28367099522529116,
            0.28243510116634973,
            0.5916913290550208,
            -0.1502013393178392,
            -0.774066418611884,
            0.6667261685819144,
            0.21931968207259267,
            -0.1660064435446006,
            0.2648140156838279,
            -0.9463419154798536,
            0.504190157550299,
            -0.8222890763657471,
            0.36486116906914834,
            0.5066093542016157,
            -0.898127251962625,
            0.8278301979660319,
            -0.27812167964376044,
            0.547976958532923,
            0.08375616666016494,
            -0.3094327259248234,
            -0.4119961791077832,
            0.141913005484112,
            -0.7587239522514861,
            0.7778846265127464,
            0.5405094429115997,
            0.28528869850354655,
            -0.6427148139322889,
            -0.11102062960175108,
            -0.6986401094975755,
            0.8115983045102508,
            -0.985943955049617,
            -0.5771156564981319,
            0.9012331081272,
            0.06515362049137075,
            0.032857042619300225,
            -0.09392233118945359,
            -0.7031908622021018,
            0.6500466079048772,
            0.7622611053801236,
            0.28051987399427913,
            0.2263686957143891,
            -0.16910655614809056,
            -0.8660371728080093,
            -0.07042542475761038
          ]
        },
        {
          "BiasTerm": -0.650342998495807,
          "ActivationFunction": "relu",
          "Weights": [
            0.48189873431483865,
            -0.11556958070803791,
            0.585335163753308,
            -0.8789418998609245,
            0.48611991322367576,
            0.0348840395714658,
            -0.16109259220911132,
            -0.38031386501564257,
            0.6916512826728074,
            0.08613457375497191,
            -0.8051115970972644,
            0.910831286935331,
            0.04444303186509724,
            -0.47692240935715424,
            -0.32359168324523946,
            0.128186172252994,
            0.8282999511889142,
            -0.0317041386953153,
            0.9161317236403475,
            -0.6547917076020422,
            -0.8474995515357505,
            0.7805549556324649,
            -0.050691381221170895,
            0.3961787295315875,
            -0.8954573159543459,
            0.4227952791197276,
            -0.7398377808371643,
            -0.1739271517028218,
            0.986683465749435,
            -0.06785787940666943,
            -0.9696108259399633,
            -0.570271946309286,
            -0.5804464615475778,
            0.8948353983013482,
            -0.8479780696469872,
            -0.45997200164442476,
            -0.8934254463482931,
            -0.9955809082842121,
            -0.7673777097707123,
            -0.8664846705085039,
            -0.18626876324077524,
            0.6721993711361036,
            0.5177846275511335,
            -0.8990144288384821,
            0.2365721910621268,
            0.6914780397076234,
            -0.8845535150718851,
            0.0022786587641339118,
            0.5342674147995399,
            -0.6493790160846379,
            -0.53448498153722,
            -0.3793830553872284,
            -0.7093702623822014,
            0.4967297825884305,
            -0.082216592482107,
            0.3459569011986896,
            0.7400798450479473,
            -0.03028722322914701,
            0.08960619778020362,
            0.073357911313644,
            0.06347361668654328,
            0.6206198316428555,
            -0.7540330676339893,
            -0.3068776097369338
          ]
        },
        {
          "BiasTerm": -0.4032194278614937,
          "ActivationFunction": "relu",
          "Weights": [
            -0.8814039727641783,
            -0.28003149700027496,
            0.11064516608175223,
            0.7685327107480271,
            0.11283860982181393,
            -0.6478128463202404,
            -0.3788980811642426,
            -0.72962953364376,
            -0.3864491730384325,
            0.9674434087242045,
            -0.7939443251539305,
            0.5358783027900513,
            -0.7960516498186788,
            -0.08864657131911458,
            0.49606779233678155,
            -0.7012586943347421,
            0.7310847008210455,
            -0.7399307397465693,
            0.009852804545791294,
            -0.1919272174776936,
            -0.9169964380753595,
            -0.13695462792270563,
            -0.4927447500253508,
            0.7020987039843183,
            -0.272973571060925,
            0.7598444830864237,
            -0.12489475920240112,
            0.8882099590394856,
            0.7761012191909056,
            -0.5366969438714811,
            0.8577643939487127,
            -0.19533233977054731,
            -0.11858394690092999,
            -0.051899786566758865,
            -0.9988757051007701,
            0.2068110910109653,
            0.07186814303354949,
            -0.33214142731903984,
            0.716823554132612,
            -0.4994854157500165,
            0.864050408969943,
            0.699152682452973,
            -0.8565710990205458,
            -0.7893753952901355,
            -0.9457462670970137,
            0.7476004626159967,
            0.2426655279201635,
            -0.5199160279120776,
            0.3956508854682319,
            0.6942130983397956,
            -0.6611821489911818,
            -0.8446062942860301,
            -0.3002950923898935,
            -0.8139561138874338,
            0.7209902450068857,
            0.07880182348609566,
            -0.248975537594743,
            -0.9859067064853613,
            0.35579357001856504,
            0.7459334192517855,
            -0.11260568356595446,
            0.9797033954378513,
            -0.1459522235770484,
            0.9741777138910972
          ]
        },
        {
          "BiasTerm": 0.051091336702657975,
          "ActivationFunction": "relu",
          "Weights": [
            -0.6020569735586667,
            0.38526044596752484,
            -0.373107859455418,
            0.20159619883263025,
            -0.4990886814148422,
            -0.3786319544505551,
            -0.03032274879365604,
            0.09164681144431008,
            -0.5634278335718053,
            -0.7663882107677014,
            0.6792935752402953,
            0.8833481267787875,
            -0.5846021584858152,
            -0.36962886187511834,
            0.5524276934816554,
            0.5519863788545376,
            -0.9823148467105098,
            0.3536456334925935,
            -0.04552340429931889,
            -0.22367973240107686,
            -0.2823200955803459,
            0.16948465872166985,
            -0.434679138996127,
            0.3535673458509341,
            0.5437255578969704,
            0.5109025474401172,
            -0.7873714484368567,
            0.8059894416708984,
            0.9427892236605913,
            0.5186199315123723,
            -0.7604633577409632,
            -0.04817072406436351,
            0.1430567902306692,
            -0.032288107043379255,
            0.9469833483770631,
            0.34479334793576655,
            0.3622476616217636,
            0.18492904955752176,
            0.07658770583071028,
            -0.277092371710533,
            0.69336865151128,
            -0.5145309403655103,
            0.5669061528810506,
            -0.595012575254463,
            -0.5227407685624013,
            -0.7306406557645411,
            0.10632245223555126,
            0.5876409565362477,
            -0.8571662171687086,
            -0.9040523782639928,
            -0.16170276691823127,
            0.6570482525569254,
            0.27770618713577866,
            0.39238626821106415,
            0.48864019671736103,
            0.8095505056251544,
            -0.49900553444118,
            -0.31610499367254774,
            -0.9203659574447542,
            0.659961634856667,
            0.8322595965759325,
            -0.7194503410867783,
            -0.45172689142647326,
            -0.0678134493921454
          ]
        },
        {
          "BiasTerm": 0.6798011076956079,
          "ActivationFunction": "relu",
          "Weights": [
            0.3260826650905906,
            0.003290116474340632,
            -0.7920049499058424,
            -0.13238689212287713,
            0.870365334981237,
            -0.4924524919551305,
            0.8784321456290243,
            0.11049317571240125,
            -0.9000587784817844,
            -0.10040778111610893,
            -0.08986289418428317,
            0.21483364554154805,
            0.6474250120111034,
            0.21784274794776293,
            0.23245920068011672,
            -0.07752860665754646,
            -0.7663960509977762,
            -0.26656429218820765,
            -0.9947376876600558,
            0.21757379539612898,
            -0.6369971601306528,
            -0.5052793760063683,
            0.13633083253648337,
            -0.8433365765910924,
            -0.8336774821177911,
            0.9119993530621566,
            0.8380790543466128,
            0.383927402618208,
            -0.914091140460273,
            0.8030149991172735,
            0.7414260300310869,
            -0.4689788965866424,
            -0.965143353559145,
            -0.825427032468285,
            0.6156161249455043,
            -0.7129568267214635,
            0.32232649722671547,
            -0.5032948280142182,
            -0.6540654228276739,
            -0.25705458564480654,
            -0.2946045275231082,
            -0.9858212445898485,
            0.04222007883069834,
            0.5955938763518951,
            -0.5414281067722252,
            0.7937952833220259,
            0.002571778483341891,
            -0.7775102704594758,
            -0.0393364181937822,
            -0.8994195512388833,
            -0.2622694501863636,
            -0.626594635969685,
            -0.6192791986791469,
            0.5062870252055429,
            -0.3020477874954087,
            0.9777514120652828,
            -0.8753512267236798,
            -0.999817711202983,
            -0.12797049809920236,
            -0.6626954043786084,
            -0.6762637132259259,
            -0.9564279467228507,
            0.585534883902896,
            -0.4669723716972153
          ]
        },
        {
          "BiasTerm": 0.2786290272051761,
          "ActivationFunction": "relu",
          "Weights": [
            0.7023874937369146,
            0.6853645588907824,
            0.17499306827673777,
            0.9115316101405033,
            0.3143911852877208,
            0.29150465006543747,
            0.7849521112667781,
            -0.8551238570055396,
            0.8250670546396646,
            -0.14841202186917324,
            -0.6054496449778095,
            -0.21589163337729622,
            -0.5325946428544734,
            -0.5025722768271517,
            -0.23298040018862576,
            0.10387376152652306,
            -0.2820291357852368,
            0.394754869368555,
            0.7858665086843537,
            0.498264978528858,
            -0.24217629642727723,
            0.1414710684517413,
            -0.2417385265714318,
            -0.9292861669749587,
            -0.43088676995370434,
            0.7099952579531084,
            0.8513678293970108,
            0.2893553562991764,
            -0.9365989780079309,
            -0.5828208846398581,
            -0.1650867129954663,
            0.8173581926887161,
            -0.11985290060375342,
            0.4383300327584474,
            0.3358412113371667,
            0.6107492080660222,
            -0.05220858366800096,
            0.13609254035469753,
            -0.9760276950306568,
            0.10058302894037796,
            0.00632006455894607,
            -0.08496376334687983,
            0.5215758490957969,
            -0.3994899178397108,
            -0.5073961401158062,
            -0.5181449416679333,
            0.8505837105903316,
            -0.051076811554208734,
            -0.7127078344633209,
            -0.5131024064928102,
            -0.6888243270432843,
            -0.5813082389517,
            0.15046941659873636,
            0.4891262929893545,
            -0.5720144872206065,
            -0.13322005004075899,
            -0.5134092639827096,
            -0.15077677069548368,
            0.5813595571457335,
            0.48601343765836247,
            0.8766252872915741,
            -0.09105490109827397,
            -0.046376372660421716,
            -0.03300024846812977
          ]
        },
        {
          "BiasTerm": -0.22008919895783652,
          "ActivationFunction": "relu",
          "Weights": [
            -0.6212518157534045,
            -0.4497099850225329,
            -0.8674293929446554,
            0.3224220977669856,
            0.699359784105023,
            0.36112307450018877,
            -0.8295404900940395,
            0.6047102054524496,
            0.8366300752748712,
            -0.788922414742063,
            0.7733135384029011,
            0.4664718659538465,
            -0.2299719684324445,
            0.08778165221329637,
            -0.6369544545446818,
            0.6583258787862634,
            -0.409287883544009,
            0.6594283650331503,
            0.4870687110455303,
            -0.9765783914521682,
            -0.5575552421754264,
            -0.30862136876406976,
            0.9652601707101849,
            0.15299042032783117,
            0.004365173233625841,
            0.5886102482994304,
            0.7606463412263065,
            -0.47815640982851804,
            0.6150938864635811,
            0.5083541606967226,
            -0.4322233630936737,
            0.6788092950297036,
            0.8643955938266974,
            -0.7458719894373114,
            0.21806330663781925,
            0.6162228412331545,
            0.11040804180244645,
            -0.6065213991978445,
            0.37829435965714375,
            0.2295101714568022,
            0.5522702393590797,
            -0.7557911270579463,
            -0.8432112544395668,
            0.8173895034436132,
            0.4196196644685588,
            0.5953125636845054,
            -0.6712940497953928,
            -0.19370623128205766,
            0.9216519009805868,
            -0.845987318125927,
            -0.9827159341431412,
            -0.8990144469429336,
            0.8102739115096675,
            0.7996588507503954,
            -0.5946588062551641,
            0.692985300842657,
            -0.7642527478031192,
            0.37485095276062963,
            -0.9435142399112681,
            -0.6069050618540496,
            0.8847160553732683,
            0.8784886924675335,
            -0.6998205152135046,
            -0.7160748781768861
          ]
        },
        {
          "BiasTerm": 0.8714692213427635,
          "ActivationFunction": "relu",
          "Weights": [
            0.024795733314780577,
            0.18398420585934883,
            0.022097481888693427,
            -0.2574044088984284,
            0.942827042460674,
            0.8985463584900142,
            -0.9952574712830096,
            -0.8118383981688428,
            0.26076735128581463,
            -0.6753688956329877,
            0.5807080323987357,
            -0.12637528739442228,
            -0.08013846247579048,
            -0.06172099522408936,
            -0.8249014365157559,
            -0.6937500876311866,
            0.342030738999757,
            -0.5275613768921998,
            -0.02013908891370586,
            0.9803636750720508,
            -0.8900621602133858,
            0.10632699304133708,
            0.12634164864776354,
            0.36567894102619425,
            -0.944022103891199,
            0.8793584167339732,
            0.2393254860132612,
            -0.7831566079023937,
            -0.522569958693889,
            -0.5957548669316356,
            -0.02302518399625575,
            0.13855129031044577,
            -0.895193410662462,
            0.7359189386134157,
            -0.7440959271575738,
            0.8046684167483786,
            -0.6126743123863863,
            -0.4178670248720201,
            0.5312744787802173,
            0.6884741955351146,
            -0.6468773678440833,
            -0.4181654147127014,
            -0.25724323469313837,
            0.330322676503664,
            -0.9245763299356631,
            -0.3705333292868003,
            -0.7621974422783542,
            -0.047181387533372865,
            -0.5786062092630013,
            0.8665426348596799,
            0.1993592232441439,
            -0.15612708922284269,
            0.9536315855879216,
            -0.3940932326331804,
            0.5503359908422154,
            -0.9127626170008496,
            -0.7643115901659912,
            -0.7426841869046772,
            -0.7956337753191187,
            -0.9993052347385755,
            0.5395926185690134,
            -0.23625048482038957,
            0.6911846716165182,
            0.6153924531659611
          ]
        },
        {
          "BiasTerm": 0.34717157473792293,
          "ActivationFunction": "relu",
          "Weights": [
            0.6650503118231574,
            -0.05657309410296496,
            0.3868311652595786,
            0.07185031360628757,
            0.9679868575818642,
            -0.8803802303503943,
            -0.3126116787719886,
            0.3607075517982017,
            0.8177209532512495,
            -0.4219256081833951,
            0.38583495626145536,
            -0.46952476387376607,
            -0.5347035025227928,
            0.4620654985714301,
            0.04105392560070498,
            -0.22558526096661746,
            0.28652297394554127,
            0.6202673374789285,
            -0.11131104360107447,
            0.8363421896036554,
            0.9653832842629722,
            -0.9202554616565893,
            -0.5622126009110499,
            -0.7376853921526965,
            -0.8886023558179675,
            0.8466520084656641,
            0.18003740828048276,
            -0.919031553190823,
            -0.810743001682172,
            0.1076498242560322,
            0.32621832669205886,
            -0.42624257907020624,
            -0.9363319795449279,
            -0.6068936277587719,
            -0.004878047864021684,
            -0.8252015613718713,
            -0.8369751290590111,
            -0.6142170155558053,
            0.25805186887460607,
            -0.7183669955279663,
            -0.9850362666296102,
            0.8100362320623007,
            0.5188655032947826,
            -0.6752872805049553,
            -0.8573672961392862,
            0.7645959860032605,
            0.7628076885258872,
            0.6110381830607565,
            0.2659081684880571,
            -0.90215865773113,
            -0.6315809171993223,
            0.0017869218056474345,
            0.47168081820791663,
            0.1939199108221401,
            0.7166887694285105,
            -0.08723916827207223,
            0.7523799235327411,
            0.9732692442642576,
            -0.6482911083330511,
            -0.37092760251538814,
            0.060493985830021524,
            -0.501162607782146,
            0.9452042162347651,
            -0.6468438614816376
          ]
        },
        {
          "BiasTerm": 0.12361815639139717,
          "ActivationFunction": "relu",
          "Weights": [
            0.949752233068037,
            -0.2056291234740355,
            0.45008231300797163,
            -0.16175035639019297,
            -0.2160926234396593,
            0.17835118009484563,
            0.403546341572969,
            -0.2672002333209993,
            0.2925244445839068,
            -0.41277707904963756,
            0.3236483092256046,
            0.5746901294616875,
            0.5137860194368935,
            0.9621316553403445,
            0.23967092462174966,
            -0.13126578610328676,
            0.43656329270922534,
            -0.8906546318681253,
            0.929878850352112,
            0.5743116990973949,
            0.6117072172558786,
            0.5661393908765047,
            -0.8119238382522783,
            -0.014586243699717505,
            0.38084706874627217,
            -0.7966747744388916,
            -0.6584834254170062,
            0.8975278752239031,
            0.9531102049703903,
            -0.18107429131268138,
            0.37564584795225087,
            0.8173112110431644,
            -0.6840951171071835,
            0.840054460439785,
            -0.3475416092596635,
            -0.5412446686747562,
            0.1976803286427229,
            0.9213425211485071,
            0.501860780384362,
            0.1692740215900379,
            0.6154998320473288,
            0.9282277161331964,
            0.2531384836196233,
            -0.9931378610651163,
            -0.6051123863109608,
            -0.3174623270050596,
            0.43579006714154156,
            -0.8387469622119823,
            0.32177985348224936,
            0.4449649577634067,
            -0.5831481599707531,
            -0.7778830378963428,
            -0.5739277623895969,
            0.6492112297799981,
            -0.4347980937858402,
            -0.41635243854517157,
            0.12791876327009422,
            -0.7375303330555232,
            0.9756934578189591,
            -0.08690094108818658,
            0.07965038473775476,
            -0.584463584391284,
            -0.5921954613052751,
            -0.2143241533187744
          ]
        },
        {
          "BiasTerm": 0.8399364350274854,
          "ActivationFunction": "relu",
          "Weights": [
            -0.7137296419146737,
            -0.7025847039988582,
            -0.40064922625050325,
            -0.25967743842221547,
            -0.47416261331107334,
            0.056809795249715744,
            -0.8666341939201169,
            0.35528381418378685,
            0.46590800040253044,
            -0.7880777332474707,
            0.9775592014404126,
            -0.903948607118487,
            0.3351657400716508,
            0.9993344143767009,
            0.7885758451984788,
            -0.07287270303263282,
            0.3779852218487203,
            0.5322400560392444,
            0.008113585489181396,
            -0.02213516430966722,
            -0.22877267733198214,
            0.2873790468243227,
            0.68308262243135,
            -0.2626323792358899,
            -0.9999551719984742,
            0.9941447597929607,
            0.4074169240004746,
            0.22223427505646742,
            -0.3731567535295326,
            0.8181439772830594,
            0.026125475430215817,
            0.06924475852160517,
            -0.6732677139600307,
            0.12942094841097296,
            -0.2961719503368332,
            0.7416146942525332,
            -0.961266491722707,
            0.407002114115558,
            0.5065500443307924,
            -0.9888473930148045,
            -0.3418622475941694,
            -0.6792898708918791,
            0.27882743343127503,
            -0.7859993215364298,
            -0.6174184623177097,
            0.8909210193622086,
            -0.982448202152816,
            -0.5958515730321958,
            0.8397495812882856,
            -0.4063443785708516,
            -0.864805333005324,
            -0.1784664643056315,
            -0.03978892397952827,
            -0.9739360836770283,
            0.2544206535697078,
            0.3063847295798201,
            0.49083257073643183,
            -0.9497312820172134,
            -0.19285126116187656,
            -0.8007962771791459,
            0.7688859702097361,
            -0.8483815298515206,
            0.5469703947956421,
            -0.836060858636261
          ]
        },
        {
          "BiasTerm": -0.4429276154541737,
          "ActivationFunction": "relu",
          "Weights": [
            -0.32049361385486264,
            0.44638978807838425,
            0.8925337883754947,
            -0.9600782217274322,
            -0.36371830598600763,
            0.3257494785435828,
            0.7627843757149944,
            0.5992955526436277,
            -0.9963944039722815,
            0.920790044027098,
            0.09774005747033598,
            -0.3475639207782585,
            0.03851166685942764,
            0.10848109277030149,
            0.7601443047585277,
            -0.14405579448651062,
            0.41933731839053134,
            -0.7230646967275872,
            -0.1591942087026147,
            0.4917119706129951,
            -0.7038948542760401,
            -0.07972317055786216,
            -0.18838624674881232,
            0.365368910821815,
            0.6503634217246708,
            -0.19424614619269742,
            0.014809826535016724,
            0.46111195627859525,
            0.6165439527498888,
            0.292449747359776,
            -0.3790899838932178,
            -0.6649183448742589,
            0.27615422068249185,
            -0.6691873756585432,
            0.9800761588143858,
            0.8491060406000326,
            -0.3852234079055544,
            -0.2186510608976442,
            0.6907644872184957,
            0.49058511066148225,
            -0.008583141916709502,
            0.4735839417108656,
            0.4189458841629059,
            0.188854777749333,
            0.9883903405225567,
            0.13513540644664057,
            -0.1283972701661008,
            0.9983301931934099,
            0.5394491954289093,
            0.23407606149261428,
            -0.5760174396246074,
            0.7032773153298508,
            -0.5701343244209074,
            -0.7567982546331584,
            0.31839310887880434,
            -0.21474247265534419,
            0.7644136146023852,
            -0.2939801546313404,
            0.1789693906916927,
            -0.5110553275792086,
            0.7165644078228401,
            0.7021082637247444,
            -0.7888130550547523,
            -0.20348244351177536
          ]
        },
        {
          "BiasTerm": 0.03052337150011719,
          "ActivationFunction": "relu",
          "Weights": [
            0.4918437817974075,
            0.5066357887367916,
            -0.6703961892362639,
            0.79525773122326,
            0.7508430967935498,
            0.6895722443419363,
            -0.23741242376501526,
            0.9256085504359004,
            -0.4380210282310185,
            -0.9109752574339114,
            -0.039593119954738465,
            -0.9563510765657838,
            0.8875835121792388,
            0.6788253239996549,
            0.3904301140013431,
            0.9497969262236521,
            -0.5161639759831231,
            -0.9539989108769428,
            -0.3243897799178136,
            0.6401604490726798,
            -0.12755709865119758,
            -0.35414126542383784,
            0.8756785277525647,
            0.06806112098796024,
            0.23600522792622036,
            -0.368356026404848,
            0.12766052659825933,
            0.5249738107550943,
            0.19698241159058072,
            0.011162648436972678,
            -0.19585115400139763,
            -0.5241282185761537,
            -0.8822445760498925,
            -0.5453759158903215,
            0.8393691558992493,
            0.14271951619193834,
            -0.8573084055543394,
            0.7660189873321466,
            -0.9379237083898843,
            -0.34196236781861966,
            -0.3501388173730916,
            -0.5795471953066058,
            0.252487142335571,
            -0.85072915819411,
            -0.09753338076063789,
            0.3233877757794319,
            -0.6871857437212314,
            -0.053466164867209565,
            -0.09164954145800897,
            0.8896954569262565,
            -0.15729967241046094,
            -0.18513472741954484,
            0.6248210551701814,
            0.17927213074494963,
            0.622112628263664,
            -0.8242773466731741,
            -0.3224834749550969,
            0.34874437218634147,
            -0.18806137264705192,
            0.0383716151288811,
            -0.6678470701611705,
            -0.9350791673646908,
            -0.3273650143558525,
            0.14891375530426343
          ]
        },
        {
          "BiasTerm": 0.08067109980104226,
          "ActivationFunction": "relu",
          "Weights": [
            0.0022132017239078206,
            0.3532921984148236,
            -0.4622788020238823,
            0.08732511104483653,
            0.8536486775156671,
            -0.8343986480654869,
            0.11233924794156058,
            -0.47205504957202393,
            -0.7528620831779053,
            -0.6018390563467328,
            -0.7667294348877939,
            0.5173532691001792,
            -0.09894153788123838,
            -0.643254306734308,
            -0.10419685305191795,
            -0.6018999683012235,
            0.9416864085116445,
            0.8506445929850117,
            0.5535665755630717,
            0.9960592646772557,
            0.5146799330981862,
            -0.7367364695139247,
            0.29713089238499135,
            0.22839500927929968,
            0.9093087769279147,
            0.6297964952668458,
            -0.22527906772516704,
            -0.4889471510962058,
            0.05379774407426874,
            0.646514881049671,
            0.48620649506239544,
            0.06847191418419452,
            0.0043870171191859875,
            -0.4561902580067638,
            0.6766666497414373,
            0.44367670237217793,
            -0.6181016347510395,
            0.6800031601626564,
            -0.2372167679481988,
            -0.7779376078764912,
            -0.8894129949940628,
            -0.016673792738989168,
            0.8105163904560237,
            0.0943922710588696,
            -0.42738946122222965,
            0.9059252675027907,
            0.6168562362990233,
            -0.8700786695911099,
            -0.32840008420027966,
            -0.7349768907968262,
            -0.4375039432037924,
            0.20571501750062215,
            -0.8727901668437383,
            0.13042801261917591,
            -0.22846415874597914,
            0.4625407207801242,
            -0.5892716354069616,
            -0.6056169989803959,
            0.3320544279776454,
            0.6542751480743703,
            -0.5080361814694552,
            -0.05742559382992085,
            -0.5754102363634488,
            -0.799636093095607
          ]
        },
        {
          "BiasTerm": -0.21561315671021097,
          "ActivationFunction": "relu",
          "Weights": [
            0.1580188629941921,
            -0.3468165519719565,
            0.5263468794142714,
            0.7782280591726876,
            0.9519604370016552,
            0.6854498455121658,
            -0.32534241487116555,
            -0.40930285900993557,
            -0.8082501160997482,
            -0.8754627498291405,
            0.4083234314761306,
            -0.5323027350788423,
            0.20406035081542284,
            -0.055293071550256756,
            -0.32395106742652724,
            -0.702971972752995,
            -0.7792503159510632,
            0.42209290488756324,
            0.4023972182070741,
            0.12769568992236202,
            -0.20070967471986,
            0.7665928168342124,
            -0.6941311281910905,
            0.7163078665729872,
            0.929990260988421,
            -0.817484479850414,
            0.7360526427761735,
            -0.7211205031247199,
            -0.8973296849857493,
            0.3854051045738538,
            0.6086622236528807,
            -0.3606177232126557,
            -0.444442970948131,
            -0.5957576929513897,
            0.3319502570706603,
            0.7508979322941711,
            0.7869449383944553,
            -0.4531974486085959,
            0.1418355303842389,
            0.33371064490910074,
            0.04409003192772576,
            -0.09220621803037732,
            0.11628049876759095,
            0.9568565523127903,
            0.5930715054269662,
            0.5903033753518501,
            -0.5629237224339094,
            -0.2123788194747822,
            0.8142833095301589,
            -0.47671488257493555,
            0.6784015762265643,
            -0.756051366834279,
            0.6006826120790738,
            -0.5323440392440857,
            -0.628092406808486,
            -0.17649144401595462,
            -0.537995013591575,
            -0.3235861000073793,
            0.3682875220089017,
            -0.9268154455462425,
            -0.6915262176697737,
            0.6373924951254373,
            0.6577773169236878,
            -0.9847650017981772
          ]
        },
        {
          "BiasTerm": 0.7344707679712073,
          "ActivationFunction": "relu",
          "Weights": [
            -0.5454819112644214,
            0.19781664514371755,
            0.4702936473488195,
            -0.6435517409268947,
            0.18173469524682817,
            0.6361692716962213,
            -0.6694778573024469,
            -0.008454415795743242,
            -0.0551108955842774,
            0.7003884611594946,
            -0.48855129949567033,
            -0.867626249895752,
            -0.4783507906768164,
            0.640250180773615,
            0.9753565116068015,
            -0.8878512298955623,
            0.6449388937243696,
            0.9879483749455036,
            -0.5285386197068296,
            0.7321721707157811,
            -0.7795105007856773,
            0.09018043880511262,
            0.8933996915621543,
            0.5456700370040914,
            -0.02817930396403212,
            -0.28388108352811914,
            -0.2832475591342516,
            -0.21306523120020793,
            -0.9741519611187984,
            0.2696089200507139,
            -0.4451087747305511,
            0.7702282198093768,
            0.528873414843529,
            0.6541175760670783,
            0.7849465315079878,
            -0.01794636746191547,
            -0.04757501682612475,
            0.29644133738334855,
            -0.6878776107113764,
            -0.10645741096354278,
            -0.6719999684501017,
            0.584557465412705,
            0.39986903927235473,
            0.6167031513013221,
            -0.49291079358797873,
            -0.4512772863159775,
            -0.31131843213905286,
            -0.793406242009032,
            0.7231000505617267,
            0.5001368501600512,
            0.17079982062691879,
            0.40581183722799197,
            0.2893295646888103,
            -0.31958070259272786,
            -0.5009740218343797,
            0.05295162697242284,
            0.6673840210477808,
            0.04362850032237531,
            0.7989604061523305,
            -0.8241355366294101,
            -0.8260634829362637,
            -0.4016312172594342,
            0.847965467776006,
            -0.12877017076101893
          ]
        },
        {
          "BiasTerm": -0.6998887128174429,
          "ActivationFunction": "relu",
          "Weights": [
            0.180938993959882,
            0.7741449344738889,
            0.31548750632138467,
            0.2702116262421328,
            -0.6809874869721237,
            -0.03900592060580221,
            -0.9340341723618751,
            0.2804646113286442,
            -0.12542837298957066,
            0.20077479569064538,
            -0.4298834369611507,
            -0.6322462841580927,
            0.9168115925752356,
            -0.10881473894657834,
            0.040836357981972826,
            0.426633151474084,
            0.19631049193586603,
            0.4610065856986676,
            -0.9181084078123646,
            -0.6715254155083805,
            -0.33168883102189095,
            0.8301476908299308,
            0.47214313138599673,
            0.1776330718038397,
            0.64026890469985,
            0.12012442766894216,
            -0.1670905093601549,
            -0.016077260211785016,
            0.4595127146621354,
            0.31684180844016474,
            -0.7384309993157958,
            -0.9596628633346014,
            0.9627383277849884,
            0.5074132776618172,
            0.9491475063494506,
            0.936331058533884,
            -0.8167779198482459,
            0.4089122183151823,
            -0.9050525007986572,
            -0.911854494966212,
            0.7087717508015559,
            -0.8152037963915251,
            -0.1927641980214384,
            -0.7533871500063245,
            -0.17437829205153543,
            -0.8266402130327328,
            0.8937702191814689,
            0.9671278953434432,
            0.8409938620125614,
            0.4659471477560604,
            -0.5601254098893462,
            0.010072928777757006,
            0.1784561658283359,
            -0.9010444675889956,
            -0.9603242445450086,
            0.7318515690956611,
            -0.5816208749425327,
            -0.7755861733388394,
            0.6981077259453936,
            -0.8304869508419643,
            -0.9706489377982029,
            -0.4428633801312397,
            0.39060065815393186,
            -0.6117855580084648
          ]
        },
        {
          "BiasTerm": -0.8858873761289057,
          "ActivationFunction": "relu",
          "Weights": [
            0.22507489559258476,
            -0.6055699211332228,
            -0.14313765111266274,
            0.006447991999251501,
            -0.25819912815736346,
            -0.5295210622964704,
            -0.48882308608097935,
            0.04821711031144349,
            -0.060572162396061,
            0.411172662431041,
            0.3879024830221178,
            -0.6638800269199585,
            0.2330213410363473,
            0.6382100234416404,
            0.561521949804695,
            -0.5814790091222595,
            -0.6023206367922233,
            0.28391168868197014,
            0.9967083676501731,
            0.2750722802982084,
            0.705560212848674,
            0.07036429604020666,
            0.9064496811691511,
            0.5010983044065214,
            0.4003708731209219,
            -0.9400724285846352,
            -0.5677260584329328,
            0.05823891360737221,
            -0.15446734224440328,
            -0.2581431570999495,
            -0.5074815603855294,
            -0.3843406585664382,
            -0.6554667516959516,
            -0.6475088079820015,
            0.6238421665865075,
            0.2771219032585681,
            0.1001008240300354,
            -0.5139908198572382,
            -0.14615726628479864,
            0.5523847397680277,
            -0.5802648577380968,
            -0.27470003033538426,
            -0.467266933499654,
            -0.5389810723346984,
            0.16768689581836393,
            -0.8667028495832552,
            -0.6011253046000091,
            -0.5204261121714087,
            0.157861381350058,
            -0.42296025191647735,
            -0.5379728917478632,
            0.6972442557679999,
            0.6491431649481152,
            -0.544971927449283,
            0.9590192164164464,
            -0.9109104274999078,
            -0.24966149243007696,
            0.8139302912478832,
            -0.8858256296660363,
            0.3089422671483202,
            -0.41871678906981546,
            0.10129569083244427,
            0.7488289591059332,
            0.6431347497305528
          ]
        },
        {
          "BiasTerm": -0.7105474752517615,
          "ActivationFunction": "relu",
          "Weights": [
            -0.2504615939591903,
            -0.9198447506375653,
            -0.19746018645975472,
            0.44373955632220374,
            0.8991428072472558,
            0.7431508723263838,
            -0.5572534178038449,
            -0.9022062307766305,
            0.05296353862851588,
            -0.8814537138551661,
            0.45145009780570744,
            -0.014388802549546442,
            0.7359062979925848,
            0.6489787244033858,
            0.39033399272338687,
            0.1484245549437888,
            -0.6020719782663504,
            -0.10973190309981695,
            -0.3638981041426912,
            0.38640293540208637,
            -0.23563163136873755,
            -0.733815756520229,
            -0.44766339432749913,
            -0.2137352275241563,
            0.09742094262899736,
            -0.4511710511300703,
            -0.04988532374500665,
            -0.9571925724930117,
            0.7673006695898512,
            -0.56009909633981,
            0.744622762341931,
            -0.1020040363967617,
            0.06124338352191927,
            -0.9941672449265361,
            0.09630018891221259,
            0.2359264655106299,
            -0.3177024720867089,
            -0.00932725177770699,
            -0.6267973296111192,
            -0.9719126826536331,
            -0.22855540934343987,
            0.20628171275526652,
            -0.31871316155712537,
            -0.5208030759422546,
            -0.8505026478733301,
            0.4014004304297645,
            0.27337795647021124,
            -0.3576627860029522,
            -0.7135366941975007,
            0.1251327452262614,
            0.31288410453173987,
            -0.8886584757039628,
            0.8565901102975502,
            0.8442850579520407,
            0.02980462477481427,
            -0.7795440347412432,
            0.22528277624539705,
            0.4229777550608267,
            -0.583745103510341,
            -0.029750197416762658,
            -0.9868470931958602,
            0.4612105939301525,
            0.11039265145110044,
            0.43105837681473047
          ]
        },
        {
          "BiasTerm": -0.7095412279166908,
          "ActivationFunction": "relu",
          "Weights": [
            -0.7976334836409726,
            -0.2270530014555946,
            -0.661843134622856,
            -0.5200726618241982,
            0.19210515870580425,
            -0.8593298646615587,
            0.8263759129872932,
            0.0302978525578268,
            0.9154366532603819,
            -0.16915567470776238,
            -0.040881196631523786,
            -0.10158670700866745,
            0.8765124332510672,
            -0.3459809436604089,
            -0.767524256322277,
            0.8458656414750962,
            -0.9374577869935341,
            0.5697103748225012,
            -0.5396039120870144,
            -0.6838112738837545,
            -0.49915242796903414,
            0.0082121614616526,
            -0.6253242184831342,
            0.32594111828247896,
            0.05621686269956294,
            0.8335461328568177,
            0.5165738006625424,
            -0.791284058164418,
            0.5985643636935876,
            0.6851697752393067,
            -0.15959253565999998,
            -0.5245584713365075,
            -0.9349619687411681,
            -0.9406286676669773,
            0.4074811599793562,
            0.7385909612879775,
            -0.9601148233826757,
            0.0663577175515111,
            -0.6589318509684837,
            0.4408083455466605,
            -0.1762427038443093,
            -0.19960583298116719,
            0.3437729978130899,
            0.979179302811839,
            -0.4056207548249442,
            -0.9414345746724538,
            0.7092946368288455,
            -0.3899842135619094,
            -0.6841366556231645,
            -0.4127953723479887,
            -0.6352367457852504,
            0.7115892967538053,
            0.34350489380539306,
            0.7071389570212796,
            -0.37149810402683614,
            -0.5661301817907707,
            0.26601738348535453,
            -0.5967715087730352,
            -0.22428081008448963,
            -0.6771135163895272,
            -0.5000945042206718,
            -0.9387094547276921,
            0.8585168334310773,
            0.9898930988896897
          ]
        },
        {
          "BiasTerm": 0.9699196986290859,
          "ActivationFunction": "relu",
          "Weights": [
            0.5792813214488377,
            -0.4808911668136461,
            -0.4924476871727872,
            -0.40362806389314154,
            -0.5306406348741589,
            0.06823238833881229,
            0.35565168467537567,
            -0.9517221521601108,
            -0.7001283885811689,
            0.06137271653737919,
            -0.9476701971247212,
            -0.19887775311731593,
            -0.899657081761996,
            0.74500463587326,
            0.2390783542468291,
            -0.24059361455238593,
            -0.44060717721032905,
            -0.4047970374061314,
            -0.9095844845758634,
            -0.403098688614587,
            0.5475930913787819,
            -0.7886414603336096,
            -0.16400244648563111,
            -0.7700213684794475,
            0.5190577097507965,
            -0.39425024268724673,
            0.8534831456226941,
            -0.18352602996108214,
            0.699670515754039,
            -0.3079236961557036,
            0.383178819798323,
            0.310203348866821,
            -0.16529833908593938,
            -0.44003718588050844,
            0.571793639603196,
            -0.45744519051914123,
            0.8445725842332568,
            -0.15898409588721252,
            -0.08697815422292476,
            -0.9264082184243289,
            0.0038620345184401383,
            0.05966976780570721,
            0.013858714414427542,
            -0.7215315955791082,
            0.7941921985798728,
            0.2964328570271815,
            -0.5629418681062255,
            0.5124767668212393,
            0.8430367365116938,
            0.9638821399731858,
            0.5047167885973387,
            0.9651232479669853,
            0.03212571004248144,
            0.609068853895065,
            -0.8774496546303422,
            0.2910966165704554,
            0.45690630990023684,
            0.38443871478042224,
            -0.2162452357414073,
            0.4222315539113235,
            -0.7589991149694841,
            0.5192846121202064,
            0.12955101672554714,
            -0.6957066604745668
          ]
        },
        {
          "BiasTerm": -0.6845851400730002,
          "ActivationFunction": "relu",
          "Weights": [
            0.4013151715434584,
            -0.6166188086386031,
            0.8428411325462353,
            0.6414535885792312,
            -0.1813034506119099,
            -0.24844287914114405,
            0.39309572108961466,
            -0.2555459029883549,
            -0.4481381275776398,
            0.6366974244791153,
            0.48131232122369294,
            -0.5507943438696783,
            0.342446512336291,
            -0.48540847165932,
            -0.47549895236206197,
            -0.8982228656733927,
            0.3661234694570914,
            0.6629632817798481,
            0.2921857830850694,
            0.7506893677938378,
            0.03695378088431056,
            -0.3834345917924561,
            0.3577324371304653,
            -0.4308530719213831,
            -0.3727766778415964,
            0.986838768013641,
            -0.9621731334283204,
            0.2948261102772092,
            -0.4028087103071709,
            0.327077196719074,
            0.46718660286902214,
            0.492681417104879,
            -0.594289440861226,
            0.336796188370589,
            -0.4430592433536563,
            0.15101468248708416,
            0.09917514534769745,
            0.7124087224570321,
            0.8107518148527684,
            -0.30935955212826793,
            -0.9885724188977629,
            -0.35410444370142335,
            0.2107236683581002,
            -0.2844604614685512,
            -0.6289791771462683,
            -0.9417851037931667,
            0.836813133750469,
            -0.011816032928906761,
            -0.058402597449668914,
            -0.5368104331948287,
            -0.6724804391420904,
            -0.6503710453329592,
            0.8082585457682041,
            0.9070034723464642,
            -0.3606380768161591,
            -0.02208434289735184,
            0.4845315342198542,
            0.9137668618756869,
            0.7054127708547409,
            0.11423252485480817,
            0.6924928884818016,
            0.18036573702546055,
            -0.04149945032906044,
            0.11115517834503597
          ]
        },
        {
          "BiasTerm": 0.9667785238889262,
          "ActivationFunction": "relu",
          "Weights": [
            0.5320486758928664,
            -0.6040556264439492,
            0.5848651261607842,
            0.6359321568480398,
            0.06716652008931301,
            0.23026724203705573,
            -0.6831304994445834,
            -0.63359516549836,
            -0.38427052521152105,
            0.9416258204504921,
            -0.39565754727411373,
            0.596661017275278,
            -0.9589991463127795,
            0.3219745825965521,
            0.22780046983661983,
            0.3613969976546054,
            0.17565269269526218,
            -0.07989472949720311,
            0.8821916699596652,
            -0.918792615865856,
            -0.023541231737502444,
            0.4127198977042643,
            -0.38425287466439517,
            0.0651911210058882,
            0.09171807747188265,
            -0.97921167928817,
            0.43365118873085295,
            0.8688669719841018,
            -0.10929918567582919,
            0.7569719042220544,
            -0.06850043899662706,
            -0.8329892508880388,
            0.8748173946344482,
            -0.04890380231728331,
            0.04116117222478333,
            -0.6851551983742394,
            0.11652032322036421,
            0.18473148910607917,
            -0.4661514064709975,
            0.5395318665752082,
            -0.0698477027998291,
            0.5763180578984151,
            0.5354275083463615,
            -0.8232274685464309,
            0.8197113019313442,
            0.2231042038952331,
            0.5257485023019806,
            0.17635670671851456,
            0.8999946083417927,
            0.32943922466724573,
            0.2732191884846218,
            -0.26325027950949387,
            -0.10513968116618555,
            -0.39520587237798777,
            -0.27336108212769594,
            0.08061123467847664,
            0.9814683033481044,
            0.23268937072114837,
            -0.8833834488640817,
            0.9554787515527254,
            -0.6405889463988866,
            0.4877424146906433,
            0.7501430258722761,
            -0.5129966071760476
          ]
        },
        {
          "BiasTerm": -0.2568565943686769,
          "ActivationFunction": "relu",
          "Weights": [
            -0.2063799014492076,
            -0.5191203814668628,
            -0.21897512554652188,
            0.9412331987062168,
            0.1384388676580639,
            0.18201831078185893,
            0.22142098166346358,
            -0.7948905868371479,
            0.8031126807435762,
            0.16806911354104237,
            -0.40535773957398513,
            -0.0028709778527883367,
            -0.688920915276502,
            0.3375886862920865,
            -0.5047530150776202,
            0.22739547570225405,
            -0.16091690259278868,
            0.6000402033583363,
            0.985821166576901,
            -0.49644660952040043,
            -0.510597317599039,
            0.9859818281265758,
            -0.9623590489030702,
            -0.19186090792413957,
            0.11966533557163417,
            0.09717903549685225,
            0.3505469238453094,
            -0.38314715018842704,
            -0.5114031830982386,
            0.11333678260725932,
            -0.25608107671820846,
            -0.23699069010457485,
            0.9658837050173057,
            0.49473050569324006,
            0.19290364735981713,
            0.9967048392207287,
            0.8039203271499535,
            -0.0650382722926014,
            0.023555004800204005,
            -0.49567938214624974,
            -0.5375010374665574,
            -0.4721858386241745,
            -0.1316498962814402,
            0.8982345433147967,
            -0.44736142021628245,
            0.11512424020504852,
            0.015023282113522773,
            -0.8231615704072883,
            -0.8986693946403265,
            -0.6132338581404122,
            0.32835543583586846,
            0.9652399634552651,
            0.7747247385727316,
            0.7562186741655794,
            -0.9254249005142893,
            0.5198029834674931,
            -0.07275152267546325,
            0.6832000084400054,
            -0.8187717987278702,
            -0.44010749795266013,
            0.13866076158579888,
            0.5871420939178522,
            0.26861208078059584,
            0.12409159657546276
          ]
        },
        {
          "BiasTerm": -0.9131686264889506,
          "ActivationFunction": "relu",
          "Weights": [
            -0.7148629365297964,
            0.3424004238234335,
            -0.19934184113085862,
            0.17704542615096552,
            0.7367865027132148,
            -0.9283834889124706,
            0.9555066087639181,
            -0.19615161288965965,
            0.4809362913361268,
            0.4923707625107092,
            -0.02891813828901335,
            -0.11665492143497613,
            0.5076489034657687,
            -0.780920733906608,
            -0.5051554266971267,
            0.7745758792216288,
            -0.53633597086292,
            -0.5951410866390531,
            0.521045683404324,
            0.3752453220644709,
            -0.9662994502203792,
            0.8934764444468217,
            -0.3046843413657576,
            -0.8399137930323688,
            -0.5832935558450194,
            0.6172662110838147,
            -0.37756091037143047,
            0.16856254519008984,
            0.8918952438768757,
            0.32354794841753276,
            0.060659790704140626,
            -0.3843435156402867,
            0.6558519636180045,
            0.4414504605085794,
            0.9152939007719101,
            -0.5246339026502822,
            0.7005976023990872,
            -0.4615967730505931,
            -0.7831618411679504,
            -0.6738854163332931,
            -0.7707688436020892,
            -0.2001370680844632,
            0.2605328643253062,
            -0.5415044469621073,
            0.1575867008502878,
            -0.40004427929081976,
            0.9636015826375839,
            -0.8131178259225934,
            0.1999635516057794,
            -0.2984223814986541,
            0.33023989473418314,
            0.9042056163382781,
            0.8198913798261396,
            -0.933006215783873,
            0.6609225751895151,
            -0.8700126159181929,
            -0.79169464846039,
            -0.2721264081582898,
            -0.685734010556519,
            -0.5647066950490878,
            -0.6424888614782507,
            -0.9185022323381432,
            0.29632913500839875,
            0.255033769743491
          ]
        },
        {
          "BiasTerm": -0.624898808557915,
          "ActivationFunction": "relu",
          "Weights": [
            0.6710048640466741,
            0.42228711526159257,
            0.49955428403607227,
            -0.09698057173467733,
            0.18737694646937753,
            -0.13148537181207853,
            0.7649676824246452,
            -0.18135441178593315,
            0.4643019119627314,
            0.5175826608502894,
            -0.7626001275453083,
            -0.8447264373221997,
            0.9316603311017122,
            0.8302209668637079,
            0.9628597637085219,
            -0.8450629366519162,
            -0.47373559577896807,
            -0.33754022912751724,
            0.22689537480645305,
            0.8244864973141526,
            -0.5054440577841551,
            0.18781030034900525,
            -0.7077957612497199,
            0.5078691422647406,
            -0.644039484114511,
            0.8418501369830227,
            -0.41266781524166707,
            0.6125289264585476,
            0.9997835162922155,
            0.7127369111260424,
            -0.8523953719635741,
            -0.7748795550548885,
            -0.5945577735414722,
            0.727374220000442,
            -0.6303328197910765,
            -0.11326579712154206,
            0.5175445587546332,
            0.34016999789091695,
            0.05367689450753055,
            -0.3544314938426354,
            -0.4736815686088841,
            -0.10530266938881938,
            -0.0025075712589041066,
            -0.3358064215805655,
            -0.7468994842035124,
            -0.09856734720394755,
            0.9272354937189753,
            0.517681553134798,
            0.044245716394210044,
            0.8573511141736812,
            0.3191979817910491,
            0.2800593711879078,
            -0.013761863002308528,
            0.4135490932605279,
            -0.6242218966122327,
            0.7871415354834976,
            0.6177451387745321,
            -0.32800470932242165,
            0.10011974782571675,
            -0.7264306596969309,
            0.27750422825447774,
            -0.16420157728816354,
            0.41074041162859753,
            -0.8896307042382943
          ]
        },
        {
          "BiasTerm": -0.3658562417181149,
          "ActivationFunction": "relu",
          "Weights": [
            -0.8656495297051263,
            0.6932782590280075,
            -0.3918238674828216,
            0.8469617698750755,
            -0.6354793317093668,
            -0.13200294464248685,
            0.0898268579254351,
            -0.5474206300679161,
            -0.07570398109220067,
            0.6327755474165742,
            -0.9405905176334518,
            0.056809630683882784,
            -0.8500465992487309,
            0.8530174863004496,
            0.5281269150932149,
            -0.1322761937206931,
            -0.371238689378266,
            -0.09780762080150829,
            0.04364582822264107,
            0.6016692080714172,
            -0.47844154053128585,
            -0.8814216677377391,
            0.5111020020608394,
            0.8294568183970066,
            -0.620111778148051,
            0.19543095818572875,
            0.9923354878853239,
            -0.2614997054509419,
            0.9424760024947452,
            0.04563619246452899,
            -0.3092385386043788,
            0.8226750649225076,
            -0.17692846623721614,
            0.6606331584655394,
            0.7317452619323224,
            -0.584971023850169,
            -0.8775726214726274,
            -0.626711358051925,
            0.9937573661762631,
            0.3074967173726626,
            -0.4700272568328172,
            0.7909409767117523,
            0.7657474083977385,
            0.45812552021057296,
            -0.9287385906570043,
            0.5707608286280048,
            0.05356307114181602,
            -0.5444187855008326,
            -0.6991880576619586,
            -0.6848535967004039,
            -0.6630135863083255,
            0.5201354631100632,
            -0.3681827782238811,
            0.7654591189308413,
            -0.7176343672606968,
            -0.8336832880526723,
            0.48562677482868577,
            -0.6385576623149695,
            -0.8358829045997749,
            -0.22316072500319895,
            -0.14615936656915107,
            -0.4667297895977497,
            0.24796934142574445,
            -0.17159612414270908
          ]
        },
        {
          "BiasTerm": 0.09556040830740797,
          "ActivationFunction": "relu",
          "Weights": [
            0.8617320721308128,
            0.607812134763623,
            -0.41227233440514144,
            0.19243310682425196,
            -0.9747977146889922,
            -0.6414016168109431,
            -0.033409841872250046,
            -0.8173221243087834,
            -0.9764197350288738,
            -0.7035640983249165,
            -0.01626859737833064,
            -0.4152749805723007,
            0.7453673485958416,
            -0.07952561649177181,
            0.19886978939859357,
            -0.24169023591963623,
            -0.5123981787981825,
            -0.17942164029014618,
            -0.5889565483850356,
            -0.011214206007609029,
            -0.26728229979774987,
            -0.4354783086211882,
            0.46563638314745304,
            0.06566446901873668,
            -0.3067082419534495,
            0.14866672545084247,
            0.15840539794885,
            0.06702582012750558,
            -0.2611069304088014,
            0.5335088341451961,
            0.5657463260270739,
            -0.38248005562530507,
            0.27117374475299005,
            -0.9941199291622707,
            -0.37870778135954186,
            -0.7518548770838293,
            0.6531466492138567,
            0.4083383780848471,
            -0.25290929031309906,
            0.6037054813468075,
            0.20578057314826492,
            -0.33363254041851753,
            0.09080288384785073,
            -0.07453469806921675,
            0.9887848285906964,
            -0.49916246299806233,
            0.7607314148898847,
            -0.8772661921320882,
            0.21797901490241012,
            -0.24417842042093696,
            0.25344594926822905,
            0.8957123099334003,
            -0.9063229909048947,
            -0.4432509189056636,
            0.3416160342048453,
            0.7168833721407977,
            0.7652397410096483,
            0.2808230228624633,
            0.8812898398819333,
            -0.6695101846797602,
            0.11883239562985959,
            -0.4580915559062909,
            -0.33551204038435367,
            0.8149025747616132
          ]
        },
        {
          "BiasTerm": -0.011479129189254644,
          "ActivationFunction": "relu",
          "Weights": [
            -0.7178272100418098,
            -0.0739498614619929,
            -0.3762525707790535,
            0.5078206445836346,
            -0.9587185449356447,
            0.44749690275225906,
            0.3836603714571021,
            0.6027496834846011,
            0.19206124903493937,
            -0.4299399811483715,
            -0.6837218508814216,
            -0.563324589727181,
            0.7709404020423605,
            -0.602473642395017,
            0.8838714848249336,
            0.4545357875277982,
            -0.6501566660020233,
            0.6070957308174445,
            0.6749998193774946,
            -0.5180424793942388,
            0.48423947227330055,
            0.441543782269471,
            0.02663693248012189,
            -0.5397771669382143,
            -0.25088561979115387,
            -0.634276468309698,
            -0.3140485135230957,
            0.5042366078210669,
            -0.22206115787824732,
            -0.5691851737408362,
            -0.7393318348473055,
            -0.7580003268831793,
            0.6361539449151306,
            -0.34013591468811677,
            -0.8696423736301792,
            -0.7373465684358405,
            0.20713458050273847,
            0.08955904729060893,
            -0.3408826603302204,
            -0.9057009709076387,
            0.5472557988278215,
            -0.2592230041862589,
            -0.15042869179448903,
            -0.3947988543952965,
            -0.7177222995325468,
            -0.7491398226414014,
            0.9375856435768462,
            -0.33166096915964993,
            0.30544478245188467,
            -0.1365735141055442,
            0.2927385073998421,
            0.1293387176686014,
            0.9458748658704879,
            0.9271411782984116,
            -0.3076571190143583,
            -0.5424401955299446,
            -0.34320635223730955,
            -0.8152043506314453,
            0.32814795699974586,
            -0.1300330144656573,
            -0.40189570179787426,
            -0.5207524747793366,
            -0.20474433518165458,
            0.7040605407489158
          ]
        },
        {
          "BiasTerm": -0.4587503947514424,
          "ActivationFunction": "relu",
          "Weights": [
            0.6180459258248969,
            -0.5889124926160427,
            -0.6396453483882114,
            -0.8873577731210868,
            -0.49182683344808076,
            -0.8483688170734915,
            -0.957380084590383,
            -0.7479350248084593,
            0.7763883813422072,
            -0.39162525516115243,
            -0.6901516127174508,
            0.9014424330584501,
            -0.644017618975095,
            -0.5481375240773083,
            0.4232799431305798,
            0.7620406319073585,
            -0.47213505651471877,
            0.2243653398158756,
            0.4115932207121902,
            0.988741547344796,
            -0.01010975749418741,
            -0.0030418490895591788,
            0.8609372230467056,
            -0.8632081135005265,
            0.4414342517188352,
            0.6196411491053742,
            0.9902546382972266,
            -0.5915732255168629,
            -0.8518854464570564,
            -0.13578773384772058,
            -0.5891865519322794,
            0.06986460828812491,
            0.7563095878982378,
            -0.10644159430371647,
            0.16310751524115075,
            -0.0032644426570258567,
            0.08626275818785434,
            0.9250869262997847,
            -0.5710833184770199,
            0.8821316838901798,
            -0.8375203543940155,
            -0.04919451482898718,
            0.3872345469570888,
            -0.4298704890429501,
            -0.8173342713643704,
            0.02885252208152478,
            0.37294891143470044,
            -0.28796795449651413,
            -0.568456690228307,
            -0.079673778206244,
            -0.6941661669652401,
            0.29890687682946315,
            -0.05384639415610515,
            0.35931745147075556,
            0.4376851642623847,
            -0.22992070966432276,
            0.5512327390247433,
            -0.9514128526401674,
            0.6758977197834704,
            0.5951004295915423,
            -0.8267369100660864,
            0.7091152148520066,
            0.39221163112765667,
            -0.06910058372608308
          ]
        },
        {
          "BiasTerm": -0.8944425043924559,
          "ActivationFunction": "relu",
          "Weights": [
            0.30345310663822955,
            0.5499546601297056,
            0.7851796241937032,
            -0.9437079691039555,
            -0.8892756676000879,
            -0.8139996789846768,
            -0.5886651627378605,
            0.1616595093625388,
            0.6308647772900156,
            0.29564546576528383,
            -0.7009581483118416,
            -0.09342306012594348,
            0.17279899278636401,
            -0.5366365163548923,
            0.36196734706750155,
            -0.5481214817761003,
            0.608605041791964,
            0.9314232579312021,
            0.714881511414063,
            -0.32418358217041787,
            0.6417171726824433,
            -0.3641454235691477,
            0.23692329349445052,
            0.6260370975812957,
            -0.1709135274750656,
            0.3101569285984509,
            0.28761264985352986,
            0.4634044543882081,
            0.2801316864295347,
            -0.20229278167431797,
            0.7418301762441784,
            -0.858211096889669,
            0.8223000143195165,
            0.64027243308372,
            0.7433995330742733,
            -0.2122032873670645,
            0.03588806049347837,
            -0.9036978431073904,
            0.8701490895881969,
            -0.3151077467255793,
            -0.8163384661296738,
            0.017509596549620587,
            0.8493870011380869,
            -0.04208736150424042,
            0.6627728158201145,
            0.48433859109904875,
            -0.932235792277451,
            0.11829035294167745,
            0.7111975722668127,
            -0.005100889033818112,
            0.5618382881292578,
            -0.6149738500165833,
            0.6745602588553385,
            -0.6331693175484673,
            -0.07863088310504562,
            0.6042249365083454,
            -0.8720137864160953,
            -0.3273015033942718,
            -0.2718325087465445,
            -0.4921081314430411,
            -0.5686608843900403,
            0.7475042707055333,
            0.2652548439050191,
            -0.8227630294228586
          ]
        },
        {
          "BiasTerm": 0.22604000424877357,
          "ActivationFunction": "relu",
          "Weights": [
            -0.8895623167161135,
            0.32718690602116096,
            -0.491505323143115,
            -0.32318110884848394,
            -0.29628339231123557,
            0.17119656380124648,
            -0.542862928857853,
            -0.038724213827072584,
            0.5141716852722271,
            -0.592182503895007,
            -0.8108874459370005,
            -0.6336918695012387,
            0.42143999938978305,
            -0.05238380808476484,
            -0.3277184216089213,
            -0.03114193808271859,
            0.6343491805545542,
            0.7042493927512383,
            0.8575838280714021,
            0.6016671071416944,
            -0.5448899601017102,
            0.04759527670535357,
            -0.6859892125304993,
            -0.559179780421176,
            -0.46269333726543616,
            -0.3388456329535108,
            -0.2613804604320672,
            0.7942379382344757,
            -0.19877372041228525,
            0.14509572756902678,
            0.5446834489318566,
            0.6901375897496338,
            0.20093456550134858,
            -0.899563781714708,
            0.05729298076195044,
            0.14654035147292954,
            -0.9839912809476824,
            -0.4754959769911088,
            -0.7711622545131275,
            0.3003178523478722,
            -0.23647837792098858,
            0.8476599876803421,
            -0.6840841414715726,
            0.7876766172911978,
            0.16522480177657783,
            0.6901012070271908,
            0.3486530873598055,
            0.07759319899511574,
            -0.11757332559641676,
            0.17884605365534756,
            0.24514453933881453,
            0.5524309939832805,
            0.6518313995132006,
            0.980319759983157,
            0.577757059020819,
            -0.6856392458230997,
            0.158214008765182,
            -0.8037911579444562,
            -0.2868649656363429,
            0.44525352211712566,
            -0.25063418081792643,
            -0.870252861994633,
            0.34107070834080244,
            -0.034683615941558
          ]
        },
        {
          "BiasTerm": 0.16801278661865204,
          "ActivationFunction": "relu",
          "Weights": [
            -0.2978572810890239,
            -0.7390575866183524,
            0.33173719086571096,
            -0.09639325287589873,
            0.5406689867961783,
            -0.17296537742949347,
            -0.02250766589999731,
            -0.4706207468371393,
            -0.6549611563576095,
            0.37461921961436917,
            0.5153173889434783,
            0.45924082401293975,
            0.05068515441189847,
            0.679011888260419,
            -0.431881166281196,
            -0.9425628261810804,
            0.6148552587467764,
            -0.668490665390502,
            0.17199990886210959,
            -0.4161671255760372,
            0.9513054191774699,
            -0.3778234776819547,
            -0.10475807282586835,
            0.19591873075983934,
            -0.11476254970568622,
            0.46981749453672683,
            -0.6250401067252802,
            0.009588115163701394,
            -0.9728788837507085,
            -0.22869097303310015,
            -0.8875589667296826,
            -0.4194751302402958,
            -0.9874900521557347,
            -0.06743077180028167,
            0.35325982261889055,
            0.1932272166532556,
            0.31862641164033967,
            0.7972423704697909,
            -0.9850792796833109,
            -0.3783695866137007,
            -0.6142812046417032,
            -0.7303978960512817,
            0.7271028476897183,
            -0.1681502337306301,
            -0.21768997010658608,
            -0.7682644848125022,
            -0.1576145227439495,
            0.8565745484668974,
            -0.36545045040150526,
            0.8510321479659808,
            -0.165254002695846,
            -0.2888445016939508,
            0.40822887216178017,
            -0.2604587401299985,
            -0.9652465985175012,
            0.8441851314161455,
            0.9106126359213083,
            -0.7655904342295266,
            -0.7710538472670716,
            0.49760048172197213,
            -0.04074719072059607,
            0.9159231326909831,
            0.9446912914096515,
            -0.8563551567744194
          ]
        },
        {
          "BiasTerm": -0.5633108210006801,
          "ActivationFunction": "relu",
          "Weights": [
            0.3237955880276704,
            -0.3743666849203019,
            -0.46909458973552753,
            0.854169238449259,
            -0.5128939384811875,
            0.861808611463694,
            -0.2085467267011415,
            -0.4928048145205506,
            -0.10485231296347486,
            0.8414370619783529,
            -0.3739675497292343,
            0.8676840473387644,
            0.7670733777147465,
            0.36609379454341995,
            0.048826382857327655,
            0.5824039545208242,
            0.3972040100752321,
            -0.8980658393367315,
            -0.311881843616616,
            0.11824857699592695,
            -0.40367671719573617,
            0.6645787032307078,
            0.09480707679021383,
            -0.3836640868399013,
            0.3282845286856513,
            -0.7816058120356316,
            -0.8693449209375146,
            0.013271532693028831,
            0.8257637684704089,
            -0.28110367488561405,
            -0.7805669876983368,
            0.6372545365788822,
            0.9123062273441913,
            0.6207300438083971,
            -0.7629175936843694,
            0.767067376432357,
            0.7214919803558695,
            -0.8169464954797651,
            0.8128665368977315,
            0.512934491343574,
            -0.9977138514167145,
            -0.7258368369453753,
            -0.31151738990966016,
            0.2402134654048549,
            -0.272295621849181,
            -0.07792383418779647,
            0.011339869873641995,
            0.5206386455406931,
            0.47922496177576934,
            -0.3575416456342193,
            -0.4340390547120885,
            0.06934942615707551,
            0.9455783585431681,
            -0.033401575804278494,
            0.07124093677326915,
            -0.4619041105496676,
            -0.18938179769004715,
            -0.08293630583460787,
            -0.09580477473204352,
            0.9650239370893603,
            0.30337726897651884,
            -0.6656874785741355,
            0.30544833101869373,
            -0.913315259622324
          ]
        },
        {
          "BiasTerm": 0.7579103062069805,
          "ActivationFunction": "relu",
          "Weights": [
            -0.0722304847146854,
            0.1634255573936907,
            -0.6658286077657896,
            0.5204847118940574,
            0.6612846333224836,
            -0.814581518060128,
            -0.21094890372628683,
            -0.41323243762347595,
            0.5776822710067879,
            0.8105632289332156,
            -0.6370130697547004,
            0.8233216235967835,
            -0.4561538848026533,
            -0.29211441744707767,
            -0.6318734557887797,
            -0.2340313685593315,
            0.6369610350184085,
            -0.9292840689796624,
            -0.6178004254852851,
            0.7206947582801246,
            -0.6164106485086492,
            -0.4113798284758714,
            0.9782526998419339,
            0.5102271592308902,
            0.0412225345479047,
            -0.156838203200935,
            -0.07960762340557515,
            0.2704151035626128,
            -0.9495489802268696,
            0.14587149308347747,
            0.5428604253322946,
            -0.22558718126148303,
            0.3183993914427288,
            -0.9688450988335096,
            -0.5602461658509068,
            0.8396738273661122,
            -0.3344820478394799,
            0.16989141449334677,
            0.7092507974961482,
            0.2924797765048115,
            0.25993096142074745,
            -0.2278781650823688,
            -0.9781872906570034,
            -0.8787079704212847,
            -0.7709586314112709,
            -0.15055054594479178,
            0.7717641217392006,
            -0.24618307352929325,
            -0.8859941071927561,
            -0.642387060279594,
            0.2243966483130817,
            0.4960249044846661,
            -0.8828003552687912,
            -0.39087208709685906,
            0.8573212652421474,
            -0.9939614778999976,
            0.024558763405855277,
            0.7263104825755236,
            -0.43607049556318866,
            0.3881614820883721,
            -0.16106588330749194,
            0.3205538184245038,
            -0.4329263435344197,
            -0.6487237575408868
          ]
        },
        {
          "BiasTerm": -0.7781236060891696,
          "ActivationFunction": "relu",
          "Weights": [
            -0.5418527068277754,
            -0.7685375682503316,
            0.8715539974294522,
            0.8709191119387312,
            0.5848334306939353,
            -0.549828072309415,
            0.4064344891276854,
            0.5205608673084197,
            0.14877967635337574,
            -0.06849985646423151,
            -0.8705079526558679,
            -0.22605967072363575,
            0.8616074938891531,
            0.6817327943316922,
            -0.321460969739395,
            -0.45312579990051605,
            0.5228143654377446,
            0.005894276284696742,
            0.35078569866330755,
            0.4615679342658021,
            0.47166800459744174,
            0.45031706641592173,
            0.39865929027371805,
            0.6823326579368847,
            -0.13656222460445377,
            -0.14969506756273043,
            0.10787857085106878,
            -0.8070414641886081,
            -0.6379277875682134,
            0.9223306610686506,
            -0.18272817218065251,
            -0.17553830307217233,
            -0.14489403122739575,
            -0.3558545458923167,
            -0.8884389947354788,
            0.8766129197480574,
            -0.3844596261295723,
            -0.13936435195122476,
            -0.38241101740797445,
            0.908683462935411,
            -0.6718772304059726,
            -0.9250435000507766,
            -0.7355498310283036,
            -0.260884548524582,
            -0.15132193488390033,
